{
  "sentence": "The dog chased the cat",
  "token_ids": [
    8,
    5,
    6,
    7,
    9
  ],
  "embeddings": [
    [
      -0.013497224737933921,
      -1.0577109289559004,
      0.822544912103189,
      -1.2208436499710222
    ],
    [
      1.465648768921554,
      -0.22577630048653566,
      0.06752820468792384,
      -1.4247481862134568
    ],
    [
      -0.5443827245251827,
      0.11092258970986608,
      -1.1509935774223028,
      0.37569801834567196
    ],
    [
      -0.600638689918805,
      -0.2916937497932768,
      -0.6017066122293969,
      1.8522781845089378
    ],
    [
      0.2088635950047554,
      -1.9596701238797756,
      -1.3281860488984305,
      0.19686123586912352
    ]
  ],
  "attention_results": [
    {
      "target_word": "The",
      "raw_scores": [
        -1.88892677290868,
        -4.0957854772259426,
        4.5560593639562414,
        -0.8341356385992355,
        -3.4154543395571317
      ],
      "scaled_scores": [
        -0.94446338645434,
        -2.0478927386129713,
        2.2780296819781207,
        -0.4170678192996177,
        -1.7077271697785659
      ],
      "masked_scores": [
        -0.94446338645434,
        -Infinity,
        -Infinity,
        -Infinity,
        -Infinity
      ],
      "attention_weights": [
        1.0,
        0.0,
        0.0,
        0.0,
        0.0
      ],
      "context_vector": [
        0.7147672041537468,
        1.2014530246020791,
        0.03637427679805386,
        1.2635257244276068
      ]
    },
    {
      "target_word": "dog",
      "raw_scores": [
        -0.8351606994179702,
        -3.613800282197339,
        2.6543689249303197,
        -2.3428546335575193,
        -6.36903474693025
      ],
      "scaled_scores": [
        -0.4175803497089851,
        -1.8069001410986696,
        1.3271844624651599,
        -1.1714273167787597,
        -3.184517373465125
      ],
      "masked_scores": [
        -0.4175803497089851,
        -1.8069001410986696,
        -Infinity,
        -Infinity,
        -Infinity
      ],
      "attention_weights": [
        0.8004836295180544,
        0.19951637048194554,
        0.0,
        0.0,
        0.0
      ],
      "context_vector": [
        0.7846252649266957,
        1.5801882480036595,
        -0.9813858328191234,
        1.2408716822737718
      ]
    },
    {
      "target_word": "chased",
      "raw_scores": [
        3.714456838053339,
        2.7245532220535145,
        -4.3079012956121945,
        -2.518129371779325,
        -1.407648798927906
      ],
      "scaled_scores": [
        1.8572284190266695,
        1.3622766110267572,
        -2.1539506478060972,
        -1.2590646858896626,
        -0.703824399463953
      ],
      "masked_scores": [
        1.8572284190266695,
        1.3622766110267572,
        -2.1539506478060972,
        -Infinity,
        -Infinity
      ],
      "attention_weights": [
        0.6143591792926113,
        0.37451353044841423,
        0.011127290258974323,
        0.0,
        0.0
      ],
      "context_vector": [
        0.8377028030633817,
        1.8824923765072712,
        -1.8735936898665926,
        1.2075222392013898
      ]
    },
    {
      "target_word": "the",
      "raw_scores": [
        5.3849241558428815,
        3.348148339469005,
        -5.658623605596139,
        -0.012082452838487516,
        4.000010682245345
      ],
      "scaled_scores": [
        2.6924620779214408,
        1.6740741697345025,
        -2.8293118027980695,
        -0.006041226419243758,
        2.0000053411226726
      ],
      "masked_scores": [
        2.6924620779214408,
        1.6740741697345025,
        -2.8293118027980695,
        -0.006041226419243758,
        -Infinity
      ],
      "attention_weights": [
        0.6980892246499901,
        0.2521335772223415,
        0.0027914831313419547,
        0.046985714996326484,
        0.0
      ],
      "context_vector": [
        0.703073499574747,
        1.5222980310291971,
        -1.140821992685292,
        1.2194570355975343
      ]
    },
    {
      "target_word": "cat",
      "raw_scores": [
        10.201982579933164,
        -0.802148507838482,
        -5.713527391083113,
        -7.238160718791164,
        -7.588715815261917
      ],
      "scaled_scores": [
        5.100991289966582,
        -0.401074253919241,
        -2.8567636955415563,
        -3.619080359395582,
        -3.7943579076309586
      ],
      "masked_scores": [
        5.100991289966582,
        -0.401074253919241,
        -2.8567636955415563,
        -3.619080359395582,
        -3.7943579076309586
      ],
      "attention_weights": [
        0.9952936773976759,
        0.004059144766939843,
        0.00034829093138742434,
        0.00016250706477982847,
        0.00013637983921694637
      ],
      "context_vector": [
        0.7154895912046123,
        1.2075856029507714,
        0.015712187283395334,
        1.263086202251926
      ]
    }
  ]
}