{
  "sentence": "The dog chased the cat",
  "token_ids": [
    8,
    5,
    6,
    7,
    9
  ],
  "embeddings": [
    [
      -0.013497224737933921,
      -1.0577109289559004,
      0.822544912103189,
      -1.2208436499710222
    ],
    [
      1.465648768921554,
      -0.22577630048653566,
      0.06752820468792384,
      -1.4247481862134568
    ],
    [
      -0.5443827245251827,
      0.11092258970986608,
      -1.1509935774223028,
      0.37569801834567196
    ],
    [
      -0.600638689918805,
      -0.2916937497932768,
      -0.6017066122293969,
      1.8522781845089378
    ],
    [
      0.2088635950047554,
      -1.9596701238797756,
      -1.3281860488984305,
      0.19686123586912352
    ]
  ],
  "attention_results": [
    {
      "target_word": "The",
      "raw_scores": [
        -0.94446338645434,
        -2.0478927386129713,
        2.2780296819781207,
        -0.4170678192996177,
        -1.7077271697785659
      ],
      "attention_weights": [
        0.03498585251054456,
        0.011605909564792108,
        0.8778158505485679,
        0.059283992758372824,
        0.016308394617722523
      ],
      "context_vector": [
        -0.06364252855131002,
        -1.3379279282506047,
        0.11057660206532663,
        0.24161612149226047
      ]
    },
    {
      "target_word": "dog",
      "raw_scores": [
        -0.4175803497089851,
        -1.8069001410986696,
        1.3271844624651599,
        -1.1714273167787597,
        -3.184517373465125
      ],
      "attention_weights": [
        0.13320533449625835,
        0.0332007350150657,
        0.7625412598140985,
        0.0626801517808989,
        0.008372518893678628
      ],
      "context_vector": [
        0.027775765611020138,
        -0.9913387933206094,
        0.023556061257923453,
        0.34971287274565016
      ]
    },
    {
      "target_word": "chased",
      "raw_scores": [
        1.8572284190266695,
        1.3622766110267572,
        -2.1539506478060972,
        -1.2590646858896626,
        -0.703824399463953
      ],
      "attention_weights": [
        0.5716713307192902,
        0.3484910058157558,
        0.010354126778038928,
        0.025337135469395807,
        0.044146401217519185
      ],
      "context_vector": [
        0.7427963937513548,
        1.7160909665012105,
        -1.7945838747390395,
        1.3619041869125164
      ]
    },
    {
      "target_word": "the",
      "raw_scores": [
        2.6924620779214408,
        1.6740741697345025,
        -2.8293118027980695,
        -0.006041226419243758,
        2.0000053411226726
      ],
      "attention_weights": [
        0.5173768825939444,
        0.18686448604898465,
        0.002068859952725104,
        0.034822658612780076,
        0.2588671127915658
      ],
      "context_vector": [
        0.509302222284187,
        1.2161530835083636,
        -1.495179824794843,
        2.1514473761767325
      ]
    },
    {
      "target_word": "cat",
      "raw_scores": [
        5.100991289966582,
        -0.401074253919241,
        -2.8567636955415563,
        -3.619080359395582,
        -3.7943579076309586
      ],
      "attention_weights": [
        0.9952936773976759,
        0.004059144766939843,
        0.00034829093138742434,
        0.00016250706477982847,
        0.00013637983921694637
      ],
      "context_vector": [
        0.7154895912046123,
        1.2075856029507714,
        0.015712187283395334,
        1.263086202251926
      ]
    }
  ]
}